solver_type L2R_LR
nr_class 2
label 0 1
nr_feature 4630
bias -1
w
-0.01597796379307507 
-0.4315616528219924 
-0.5039982450957955 
-0.2632783795674832 
-0.1279358815913088 
-0.2165355709434717 
0.05967902208425325 
0 
-0.1237894188062616 
-0.6352799738048109 
-0.2892454353293145 
0 
-0.05969654135466281 
-0.1506489519754964 
-0.8187405582122376 
0 
0.02956000449992629 
0.1656060386910634 
0 
-0.1764787766400316 
-0.001134934845240386 
0 
0.1931928406890721 
-0.4342857077570575 
0 
-0.7958188859290377 
-0.2932106089508613 
0 
0 
0 
-0.1157195178754902 
-0.5083517482527479 
0.3369174677202832 
-0.5277400136452127 
-0.3242737382624438 
-0.006429710366432856 
0.1932352002428183 
-0.02953837053620364 
0 
-0.6286676829808525 
0.3205964793793733 
-0.3977006493985429 
0 
0 
0 
0 
-0.4668925205948866 
0 
0.1928718948954741 
-0.04509779043733729 
-0.1995907101723476 
-0.3326473784969864 
0.7890884946709035 
-0.1341942238077017 
0 
-0.1261061609312606 
0 
0 
-0.6160389543672695 
0 
0 
-0.03305884387827779 
0.4471931677699972 
0 
0.7602438702865293 
0.1159374656418968 
-0.1082628197721607 
-0.07675422060889678 
-0.4243866486406303 
0 
-0.1913237773568141 
-0.3639513336101005 
-0.02228103104631057 
-0.3977991120939076 
-0.4910631685684066 
0.6823011325837716 
0.1151847066956251 
-0.025205702461739 
0.05937017988204139 
-0.08696163127357025 
0.444200460683065 
0 
-0.01446278086861314 
-0.0923036911068672 
0.1610126686594136 
0 
0 
-0.1028402561514246 
0 
0 
0 
0 
0 
0 
0 
0.182128213762035 
0.1438629196936799 
0.2940011761150106 
-0.5410910594709865 
0 
0 
0.1368154103772831 
0.1971342262960943 
0.03309760405267173 
0.3673349275070403 
0 
-0.101972294691891 
-0.1833213511679043 
-0.05657584743594096 
-0.01800489348680735 
-0.6417924175892342 
0 
0 
0 
0.2745071455868753 
0 
0.02457656071685878 
0.8951613096865774 
0 
0 
0 
0.2107073684434287 
0.04195207061776925 
0 
0.06200702570986487 
0 
0.177160421098736 
0 
0 
-0.411373690351057 
0 
-0.2552971828951386 
0.2330587848007433 
-0.3047591375276846 
-0.04710195764391178 
0 
-1.249718646703284 
0.1439047948584607 
0.02528690008985721 
0 
-0.6092681857064376 
0 
0 
0 
0 
-0.2093727735135512 
0 
-0.177259950639586 
-0.273610564310488 
-0.2597909759799942 
0.06847055998698791 
-0.5116142710426899 
0.01622927916720259 
0 
0 
0 
-0.1609190694102227 
-0.3179934420484677 
0 
-0.04747928224959044 
0.04254953474175597 
0.02499342971187328 
0 
0.04232452605977705 
-0.3139730772780587 
0.002704541080418753 
-0.6156714529250541 
0 
0 
-0.2864516542229688 
-0.9234361592923686 
-0.4218932643478045 
0 
0.4696612363893806 
-0.8489853276495304 
0.4125748372828552 
-0.3326174996958857 
-0.1852800764672747 
0.7516314605150795 
-0.0120002130467901 
0 
0 
0 
0.2512096285215303 
1.826269187698525 
-0.6895369969053251 
0.03623181589195554 
0.2862151267793318 
0.05324705396880268 
0.3171572142112956 
0 
0 
-0.2283787383531095 
-0.4999262006955933 
-0.187682917822675 
-0.1807944987190691 
0 
-0.02890255222071715 
0 
0 
-0.030075764289033 
0 
0.2692247867424847 
-0.2167682235890422 
-0.2077213672080463 
0.4195318075472673 
-0.2967072953735145 
0.01528333883119933 
-0.06594725674059163 
0.09477914557179311 
-0.2903757011560908 
0.319906621239294 
-0.3488923230465578 
0 
0.06615609551806842 
0 
0 
-0.876023487974797 
0 
0.126440616375536 
-0.1088293905922489 
-0.480393472046048 
-0.5092689586104573 
0.1585444951854062 
0.2150814864113623 
0 
0.3905348930722681 
-1.258357394458455 
-0.006096406916792212 
0.2569388881836638 
0 
0 
0 
0.06783020793233314 
0.2104367384531402 
0 
-0.1693230156126239 
0 
0 
0 
0.1194723506816038 
0.1126452023970752 
0 
0 
-0.3175173067640964 
0.02495415286749212 
-0.08170500783128312 
0 
0 
0.9533154510534234 
-0.04385456326677389 
0 
0 
0 
0 
0 
0 
1.063451353371855 
0 
-0.2473469325578311 
-0.1673721854367332 
0.3918209065084894 
0.106141566104599 
0.05818652301857084 
0 
-0.1257630122677295 
0.5399979374090961 
0.4128673498911801 
-0.5037912303180936 
0.06225920270780412 
0 
1.452424554649596 
0 
0 
0.3199835223202673 
0.463402148182766 
0 
-0.0566153717183905 
0.02739314719024076 
0 
0.3766124445497404 
0.2548511857985941 
0 
0.3650054190806098 
0 
0.6667310703581462 
0.8686935598966478 
0 
0 
0.08637355490261776 
-0.5820468188743767 
0 
-0.1849928875019953 
0 
-0.2854677104155392 
-0.0864370997515771 
-0.1853207902681284 
0.3228627209306572 
0.4465160851139038 
0 
0.3614706861688456 
0.4725108559526293 
-1.191631909593631 
0 
0.08699408113208532 
0 
0.0185500170582495 
0 
0.01919184609401155 
0 
-0.1098841900982617 
-0.3922891599333037 
0.1064703457301114 
0.02909141431984321 
0.1926546718549137 
-0.01760964919319615 
-0.2938785324994542 
0 
0.08729577975334632 
-0.02585745726101241 
0.2036484508723989 
0 
0.6243041441962418 
0 
0 
0.2197287169681697 
0.03743264545757594 
-0.2466076710136781 
-0.4166721650250947 
0 
1.074615854312374 
0 
-0.04928342668168827 
0 
0.02547788209735095 
0 
-0.2549399845776933 
0 
-0.2918286079795487 
-0.3908186548923487 
0.06099394532514359 
0.08127599506515645 
-0.02827641488559614 
0.02662727173302514 
-0.1450855567609252 
0 
0 
0.4794702004325354 
-0.739038258422377 
-0.1749750110780668 
-0.2583868875142443 
0 
0.0770785427048027 
0 
0 
0.1584232108754709 
-3.068750279620009 
0.08009891902582139 
-0.06151856445858723 
0 
0 
-0.2084567873828296 
-0.2938910072273734 
-0.1253306240038984 
0.5570121618995779 
0.0006290887609684204 
0 
0.3427050731688266 
0 
0 
0.1807913849830733 
0.3567212842341611 
-0.3863509541182275 
0.02360053844924268 
0 
-0.2037452219203487 
0.9014226400648209 
0.08469762976851407 
0.2128432711017753 
0.1397124258114285 
0 
-0.0205063086774847 
0.0004625275061702428 
-0.0651719951660463 
-0.1182555719152701 
0.2188064425233355 
0 
0.2581030701766081 
0.1763587946041118 
0 
0 
0.08567559186942815 
0 
-0.07427606450284058 
0.0870395643253823 
0 
-2.332498820805045 
0.2577197905006515 
-0.04930673294708986 
-0.4778137049054071 
0 
0 
-0.203327691953482 
-0.9187741327711909 
-0.3188980164434475 
-0.009199538941837421 
0.1122299655820717 
0 
-0.2180921302420053 
-0.120678491728474 
0.6545597958540028 
-0.1529419345462414 
-0.1759740495293099 
-0.2693295691545188 
0 
-0.5267638439245577 
0.2824243709093928 
0 
0 
0.05812536285576699 
-0.5653205461066755 
0.1124020438845475 
-0.181495849785039 
-0.4366814062927193 
0 
0 
-0.09530560872274224 
0 
0 
0.01145329741202345 
0 
0 
0 
0 
-0.1151749254759999 
0.3164922134244606 
-0.08912050672249171 
0.2716516813545656 
0 
0.3430947292227667 
0.2149188972551182 
0 
0.04191555721929735 
-0.1957860687146281 
-0.04999446717266382 
-0.02366196724752278 
0 
-0.4324472840584365 
0 
0 
0.02876646012905826 
0 
-0.1270012679589875 
-0.1750811333097144 
-0.4995563348330615 
0.6471487778383426 
0 
0 
0.05864879352332916 
0.6967874100280688 
0.02453096139982931 
-0.03719884673905791 
0 
0 
-0.096734645978411 
0.2386349038959765 
-0.6477312100482555 
0.2075436853073552 
-0.8448570796219448 
0 
0 
-0.9486980323319379 
0 
0 
0 
-0.158752768163482 
-0.2209826219088711 
-0.5825817724532603 
0 
0 
-0.2813520683615329 
0.1737590410403918 
0 
0 
0.3501710328069337 
-0.3543912531476012 
0 
-0.0701620199514297 
-0.1167618218061442 
-0.5430226727899995 
-0.04026097124354894 
0.4495132221512754 
-0.1814279919313151 
0 
-0.3254653049970216 
-0.1877535290353041 
0 
0 
0.2814634523787695 
0.1417590640883346 
0.2336450414495053 
0.603967274236709 
0 
0.06217758946161885 
0 
0 
-0.0140309459814309 
0 
0 
0 
-0.9191457444683893 
0 
0.2264281193609154 
0.04045150832347899 
-0.001465704628239399 
-0.07391499028917986 
0.3605156224565236 
0 
0 
0.2686711937357948 
-0.6970855079203176 
0.1303717516586703 
0 
0 
-0.3997310797545335 
-0.08175004027966698 
0 
0.4595087907587031 
-0.07273146910784106 
-0.09310326578697961 
0.2332062277697493 
-0.1334053808745829 
-2.250824750737985 
0.02306512654675685 
0.04983699383720545 
0 
-0.08367896616271418 
0 
0 
-0.02774761959395248 
-0.1717212866244134 
-0.05376669697881491 
0 
-1.339020017121663 
-0.5096713423378127 
-0.1808037824866778 
0 
0.08400561654130781 
0.3486713179092874 
0.03094617695272456 
0 
-0.09105508453940286 
-0.1246555921944275 
-0.3440944462807176 
0.2340284249227658 
0 
-0.3406017947313763 
0 
0 
-0.2990223839050478 
0 
-0.9265339939096948 
0.07034189848144938 
-0.4719993626379854 
0 
0.3001217883206556 
-1.68390705132918 
0 
0 
0 
0.3160712176304619 
0 
0 
0.1309219419050937 
0 
0 
-1.060457712646851 
0.3178503827196406 
0.4639224228423763 
0 
0.253762528751503 
-0.1579908206227048 
0 
-0.7200328635052758 
0 
0 
-0.1250918932959603 
0.04987549311931877 
0.2641770359130702 
-0.1575996364346197 
-0.1851344886276209 
-0.01053888279645561 
-0.2176670484815962 
0.08827270580218076 
0 
-0.1300304589392144 
0 
0 
-0.4187526456610803 
0.0311957752128506 
0 
-0.8610752757223394 
-0.0797148358388591 
-0.7781212116107057 
-0.1183170325279998 
0 
0 
0 
0.07412654731452988 
0.7460282248613037 
-0.07634446839816061 
0.07376801119826704 
0 
0 
-0.6253110160535363 
0.1260299675014134 
-0.1436080463609605 
0 
0 
0 
0 
0.6545246120647996 
0 
-0.506190805734826 
0.519572569119659 
-0.1312158860393322 
0.1135293169137142 
0.06421512839666718 
0.1373007874408376 
0 
0 
0.2479564019143637 
0.1683093639891531 
0.2463956192137913 
-0.2815780279865752 
0.3304471880051539 
-0.1026792919426867 
0.5675706554886206 
0.09939565767139844 
0 
0 
0 
0.07145699255883699 
0.4517973870012043 
0.2483426036880017 
-0.009937657328919085 
-0.2474541978715768 
-0.2185026048327081 
0.7550254128256735 
0.2352611849555285 
-0.272257783899332 
0 
-0.1967303619224235 
-0.1732714409377434 
0 
0 
0 
0.2833649801386507 
0.09596155939849979 
0 
0 
-0.7404399517984528 
0.2874734280685532 
0 
0 
-0.6213883697855815 
0.6221744865687616 
1.530823718809114 
0.7040770211632479 
0.2761731671747921 
-0.06710128046623316 
0 
0 
0 
0 
-0.2790423213709901 
0.3741027591196459 
0 
0 
0 
-0.6701533858515464 
0.1272528151087601 
-0.08905217874152492 
-0.03131643031456104 
0 
0 
0.7039902994795314 
-0.2384177852022959 
0.3094515930034751 
-0.4363446272225168 
-0.693457648352045 
0 
0 
0.003759239112756953 
0 
0.2131320501391612 
-0.269690359182766 
0 
0.265871438114907 
0 
0.2902240314958522 
0.08701308554254553 
0 
-0.3211268565758288 
0 
0 
-1.105400444860851 
0 
0.6189448687109712 
0 
-0.1821447829726426 
0.2490957478652452 
0 
0 
-0.01301087608576958 
-1.190737296546511 
-0.4595881162709372 
0.08012952579267037 
-0.05272603011615021 
-0.02159777416764215 
0 
0.294249890825496 
0.2757559260744071 
0.908763993074027 
0 
-0.5353321620512341 
-0.7524375611945642 
0 
0 
0 
0 
0 
-0.5976621024549543 
0 
0 
0.6752790025927562 
0 
-0.2999053988731135 
-0.7771169249371713 
0 
0 
0.5976079297397185 
0.2269342069114959 
-0.4945224718914214 
0.2627388094486058 
0.2449896538441051 
0.3529900900474193 
-0.6752155300788252 
-0.01262675769711199 
0 
0.1129236262006788 
0.01232917658869254 
-0.09093948573151903 
0.7528537347577587 
0 
0.2218696773390406 
0 
0.8583139405634062 
0.2867070859868964 
0.1848578400514622 
0 
1.034455576960032 
-0.02032262250292676 
-0.8482485588819781 
-0.01096195372719049 
0.504770200822843 
-0.9859175309445358 
-0.04887003780922652 
0 
0.4186017892795872 
-0.1030460950908604 
-0.7848753694824611 
0 
-0.206755054067258 
0.5164655448286972 
-0.1594252091227042 
-0.6867258880541166 
0 
-0.2073588475347542 
0 
-0.5391119794848437 
-0.08483827061710114 
-0.3462743904196094 
0 
0 
0.5957042765800171 
-0.1072843023928034 
0 
-0.04329509079060838 
-0.4467200502620287 
0 
0 
0.3657283376988029 
0.1443981828902737 
0 
0.01399631364227854 
-0.6177884369897069 
-0.1032863100038838 
0.3519323862805658 
-0.6809407797993452 
-0.02831021317634175 
-0.06605120049711816 
0 
-0.02459183860582115 
0.1112154009030673 
-0.81367389447765 
0.8521549585455414 
0 
0 
1.002291746002883 
-1.24916152889179 
0 
-0.4770483865552443 
-0.001763745959948888 
0.2244900920953235 
0 
0 
-1.107839156650172 
0.5184839858985024 
0 
0 
-0.2926426628516163 
0 
0 
-0.1836290774178113 
0 
-0.01596016867033207 
-0.6372196685247747 
0.120026085873035 
-0.1039929905292943 
-0.1923063822836545 
0.1816947229283742 
-0.6059114895352629 
0.7161534836686843 
0.9729169407780514 
0 
-0.250913934862067 
0.01800776502028725 
0 
0 
-1.49497183033739 
-0.1099249339574546 
-0.1414449626068212 
0.0001184816415712753 
0.4533985427308911 
0.1694480728393392 
0.09701759137280071 
0.6064250788232499 
0 
0 
0.3408203248195795 
0 
-0.1237574317015027 
-0.02742417134144864 
0.182435388516379 
-0.3422865202671482 
0 
-0.3135578889009157 
-0.4205761748214088 
0 
0 
0 
0 
-0.09373785110074305 
0 
0.4887198679254325 
0 
0.1710299078729249 
-0.6699766125512755 
0.01413602336901925 
-0.09313712497468095 
-0.4151166187764665 
0.3528716905885645 
0.3218626807619592 
-1.660791095158257 
0.08511176320685863 
0.84665439385659 
0.187196743861204 
-0.09809738642622017 
0.1584297815150346 
0.2038291403102782 
-0.2288570884337332 
0.02493024992421426 
-0.5738301132186024 
-0.5543827331254731 
0 
0 
0 
0.7073669372122408 
0.1406414740033385 
0 
0 
0.1145653569519058 
0.04741519062825773 
0 
0 
-0.04776111255281546 
0.104939149333705 
0 
0.1433139084981296 
0 
-0.5785327053018787 
-0.2388362189729671 
0 
-0.5819472342205013 
-0.5805096173328407 
0 
0 
-0.5305594059865659 
0 
0.4477414953542729 
0.1508846480154171 
0 
-0.2192012136670692 
0 
-0.2782252681111493 
0 
-0.0006851884117023282 
0.1012800812331652 
0 
-0.09657451614914564 
-0.6485378212485744 
0.1128366115170489 
0.5898804336118405 
0.001056023617347947 
0.6073164492489506 
0.1060513885104656 
-0.01056998317295718 
-0.1274427486752059 
-0.1208021927314854 
-0.2411554860120758 
-0.3578739853908222 
0 
-0.1195889710574353 
-0.0008249590635271407 
0.07140397457846713 
0 
0.6444920277749028 
0 
0 
-0.4286875355210564 
-0.8210704784865031 
-0.5520172506359504 
-0.1217397251907043 
0 
0.6106419197316748 
0.5076355083016304 
-0.06528099057426001 
-0.7893546494148186 
0 
0 
-0.2643131655062912 
-0.5173471587010889 
0.4200738065138175 
-0.01472978648066842 
0.1793576769819657 
-0.07739109621545012 
0.1936112568725265 
0 
-0.3211249020026636 
0 
0 
-0.05336206759545475 
0.110377929998133 
0.30949933576042 
0 
0 
0.01734397734427705 
-0.2608210562208281 
-0.06405839913285656 
-0.04657189820020468 
-0.1972716878011543 
-0.3198115380932028 
0 
0 
0.3870280584701447 
-0.3696566655550175 
-1.136169759044295 
0 
0 
0 
0.1705676236807279 
0 
0.4771650656594673 
0 
0 
-0.5544900406861891 
0 
0 
0 
0.8175944854324166 
0.1917830397170442 
0 
0 
-0.2513021646425134 
0 
-0.02788649547326127 
0.1190630397255559 
0 
0 
0 
-0.06123325117001005 
-0.04899300591851953 
-0.4747575656184771 
-0.1873886542518516 
0.8299344791796341 
-0.5356431199262551 
-0.0002066099782444194 
-0.4285403265051101 
-0.5188941001903793 
-0.2975867384433306 
0.5000078301314514 
0 
0 
-0.2625837130292482 
-0.2604934514236474 
0 
0 
-0.9807464969054286 
-0.01340625036807225 
-0.1423154097242137 
-0.09445123762336609 
0.02912147512367522 
0.05438801702110678 
0 
0.3618621756436632 
0.593396452239056 
0 
-1.31516459226718 
0 
0 
-0.09654832514254946 
0 
-0.110092643551533 
-0.3621209511533453 
0.3830832460387102 
0.8976485974745895 
0.3320619476949256 
0.369901157202243 
-0.439258682004787 
0 
0.11748751450641 
0.3637748040262866 
0 
0.1146513639037829 
0.4416576043060512 
-0.0163179960586033 
0.02198223845751127 
-0.2209367952221338 
0.01981830245452535 
-0.4707864049989897 
-0.1430614610687036 
-0.02224754465917662 
0.0957823449598361 
0.3147555196275506 
-0.3838224060696365 
-0.1650680493135997 
0 
-0.6869179914883914 
-0.5878403144834304 
-0.5018326452742558 
0.01491675442968578 
0 
0 
-0.05263344065656405 
-0.1452091900125261 
0.5441487275075795 
0 
0 
0 
-0.2671518662924134 
-0.1297962031779951 
-0.001031370393866725 
0 
0 
0.2811374481876291 
0 
0.5248538857316184 
0 
0 
-0.3540265687632995 
-0.2781488125281745 
0 
0.1100410190598015 
0 
-0.07833112121791407 
0.0821266609078759 
0.03881735894967633 
-0.09040463024142556 
0.1804845695713229 
0.3713039931785355 
0.7023538882898512 
-0.04624916204544034 
0 
-0.1599232720083464 
-0.4308802183724957 
-0.01834980217066793 
0 
0 
-0.1040867672149967 
-0.05253911305535319 
0 
0.3589893351238382 
-0.3510075807975151 
0.7343884504329281 
0 
-0.5426691770182764 
-0.07766917584744425 
-0.4611764391022163 
0 
-1.097119589970787 
0.2653756073459526 
0.6547619221009738 
-0.05533181499611773 
0.2638939894209139 
0.164005701896241 
0.07620990668824412 
0.1043981916174223 
-0.02710388473929396 
0 
-0.1342926730457996 
0 
-0.6482849823977694 
0 
0.5439707514001935 
0 
0.5566982481991577 
-0.549588018372856 
0.1108969830838905 
-0.9844772613273285 
0.5666273174345312 
0 
0 
0 
0.0464718789203939 
-0.5486046279827806 
-0.05992579130373264 
0 
0.3881523764004163 
0 
-0.290093034152961 
-0.5304386913479375 
-0.704941687649583 
-0.2137330197470692 
0 
0 
0 
0 
-0.01037266467351658 
0.8172300490402015 
0 
-0.00669601863128989 
0 
0.2188893710310122 
0 
-0.3428427757786471 
0 
-0.01398637460133856 
0.005391885031111434 
0 
0 
0.1463800826469199 
0.8406446120871826 
-0.01008066996122245 
0.5523300757821549 
0.3821410303799537 
-0.5671020684826769 
-0.06181301169425486 
0 
-0.1489635304201167 
0.2592467543083545 
-0.09598995681369868 
0.09027981564350111 
-1.061949201467888 
0.04740344402327387 
0.4618571140473061 
0 
0 
0 
0.307089009716043 
-0.01266655626517869 
0.2355120756176398 
-0.4463354983393996 
0.09030766688584643 
0.05323091880383182 
0.1643236284845715 
-0.01823166057823493 
0 
0.5269330934384409 
-0.05399148587548474 
0.2135161176022601 
-0.637383763737889 
0 
0.3721369509616969 
0.04171726029786976 
-0.104338026188494 
-0.217767608479125 
-0.0960293805217491 
-0.1436795388861252 
0 
0.3961931129916503 
0.01865546589808792 
0.4192016959080966 
0 
-0.1327071564611883 
0 
0.7565567474186282 
-0.005386293701315072 
0 
0.05182737715593753 
-0.01295876206957613 
0.6567800313901129 
0 
-0.04744853924444199 
0.001311359201568572 
0 
-0.06258065394686549 
0.06372662961222493 
0 
-0.196724549629466 
0 
-0.1674897067429206 
0.5434330176014278 
0.8903813620488584 
-0.3511891621073045 
-0.2175120469666068 
-0.3455198712562217 
0 
-0.03534001695706381 
-0.2653456666275169 
0 
-0.5599309292468532 
-0.3434083932027173 
0 
0.0799604698591718 
-0.4008801026447131 
0 
0.2893957896541556 
0.5382499008597746 
0 
-0.3178853974127446 
1.059059004998697 
0 
0 
0 
-0.8881568670444362 
0 
0 
0.5344744522170475 
0 
0 
-0.07493726739876158 
0.8330948859218483 
-0.003187141325968008 
0.04584729399396937 
0.0359626853718438 
0 
0 
-0.04749811190832656 
0 
0 
0.7431270695110137 
0.5338706433703779 
0 
0 
0 
0.1609446261864196 
-0.1571985839991074 
0.2803451268758712 
0 
-1.370437712765918 
-0.1353379348542461 
-0.2117663067016912 
0 
0.02105941717055993 
0 
0.00598294777071096 
0.9734019163302756 
-0.6809084800726525 
-0.7865578977338014 
-0.2364102184620986 
0.1562026513800435 
-0.01316034769478452 
0 
0.6545182284289663 
0 
0 
0 
-0.1528414994557741 
0.06546093992771879 
0.3627889252225293 
0 
0 
0 
0.2842282839218104 
-0.4482575123458406 
0 
-0.731771107451393 
0.4766925745510184 
0 
-0.3932398296910937 
0 
0.7526875267978266 
-0.1201558396695703 
-1.067009145750159 
0 
-0.06014292810353425 
0 
0 
-0.3403349257612627 
0.2593813693339618 
-0.09167567464711579 
0.7154814004039256 
0 
-0.06263101126355583 
0 
0 
-0.6138547297981748 
0 
-0.7023758649083716 
0 
-2.412925839343152 
-0.001548986094121001 
0 
0 
0.1362514989194329 
-0.2231167754790069 
0.2304230656929634 
-0.005654981075779253 
-0.02380696505050865 
-0.05770132623833456 
0.2095820177840999 
-0.1932509170244217 
0 
0.1312070116877867 
0 
0 
0 
-0.3311468718837349 
0 
-0.3990564374068174 
0.05970449958424068 
-0.0168750276285267 
0.2564138366484492 
0 
0.4979556155681443 
0 
0 
-0.4561598426176596 
0.1625684846440731 
0 
0.5666185638129924 
0.03745998284243025 
-0.1569489235696014 
0.2994510655375061 
-0.1660693175253506 
0 
-0.06234084579986687 
0.187256448082017 
-0.1582409847991568 
-0.09415781826000205 
-0.1539497808826881 
0 
0 
0.1292574747180786 
0.05206305381269589 
0 
0.1580046531178262 
0 
-0.1304178588532255 
0 
0 
0.4233497775954321 
0.07908959374642911 
0 
-0.1543627748976142 
-0.03511227073942666 
0 
0.04043479843257735 
-0.020801434741242 
0.3286670663415038 
-0.1682398938461707 
-0.3646698944156502 
0.2894039373361947 
0.2357265755724252 
0.7203233081142788 
-0.7916681930920434 
-1.258706885414346 
0.1350059277580165 
0.05804432220944537 
0 
0 
0 
-0.05506757494077747 
0 
0.8669554667948507 
0.04853597542529194 
-0.09851446117654988 
0 
0 
-0.2884932874111151 
0.7139167306103045 
-0.08435507977239999 
0.08628449194528869 
-0.4995563348330615 
-1.603646351303263 
0 
0.416689152403067 
-0.3974545397969851 
1.399707691382728 
-0.2644093190318071 
-0.07885663588067914 
0.0915163445613046 
0.2947226969273564 
0.289417405341179 
0.1017057485917707 
0.8371274084437084 
0 
0 
0 
0 
-0.7578911047005712 
0.03084502313105978 
0.09968890308547053 
-0.5230839675999072 
0 
-0.8289742049124673 
0 
-0.1399277395664229 
0 
0.09826238633728586 
0 
0 
0 
-0.1980801205286185 
-0.04898858790460015 
0.2056062128275211 
0.2103432117412068 
-0.1654931653035517 
0.4466530534112118 
0.1043711675264539 
-0.4136097131388154 
0.4371850282092379 
0 
-0.1509995615412722 
0 
0 
-0.6263489034882624 
-0.1202747384504346 
0.7404985962695976 
0 
0.1014900448839171 
-0.08563258168976647 
0 
-0.1683565176414561 
0 
0.1001333990342602 
0 
-0.3541374506127244 
0 
0.1254877856418218 
-0.08715537850421105 
0.03098211970707821 
0.9032908193327985 
0.0795145018187431 
-0.3989745112829185 
0.5259083626382013 
-0.4625405454678084 
-0.2524945471762854 
-0.4157263902834882 
0.01651991312750184 
0 
0 
0.1718600621654248 
-0.4077063312810596 
-0.007327563177264198 
0 
0 
-0.1098276231480996 
0.206159161228724 
-0.4848217833446952 
-0.2065668646842173 
0 
0.002394398739621842 
-0.3248892891273316 
-0.01869802741827499 
0 
0.3988527145919754 
0 
0 
0.1332663902841664 
-0.04376497932880795 
-0.2042161046091126 
-0.7435981446727694 
0 
-0.3731753788881839 
0 
0 
0 
-0.4813652058160041 
-0.3373670479824369 
0 
0 
-0.06084062940567919 
-0.2455360168970672 
-0.1307305313248036 
-0.1148338732944276 
0.03753568503297454 
0.0489676506103764 
0 
-1.785621944553227 
0 
0 
-1.040401392746692 
-0.1206138581109842 
-0.5615703520154715 
-0.01221701288225304 
-0.08100202584149667 
0.3921915580839955 
-0.2075418318405055 
-0.7164562180905574 
-0.390319616411851 
-0.1153124167789507 
0.01990594470908696 
-0.07959591881243164 
0 
0.4559296529357731 
0 
0.1494673269197132 
0.1929507912314891 
-0.04500041416438993 
0.4500883252991714 
-0.1937256450948703 
1.048828908699178 
0 
0 
0 
-0.1651674015436914 
0 
-0.3966668165919885 
-0.9151886418521914 
0 
0.3194094755251535 
-0.8138178035915014 
0.1235615182916807 
-0.1693776166749988 
-0.170838602369424 
-0.04043206943886443 
-0.0264817332163486 
0.2469605987824102 
-0.00666680110735771 
-0.3315038139014596 
0.1135830750247248 
0.6265726412419298 
0 
0.0467406283267978 
0 
0.2187417936494994 
0.8926795983573318 
-0.05207258719166561 
0.6458509592112631 
0 
-0.6430301971384553 
-0.05200913786561956 
-0.6503062082513265 
-0.1037330842417705 
-0.02486613325705127 
-0.2386230333912231 
0 
-0.5761665468192074 
0 
0.356076833016587 
0 
-0.07280628446501174 
0.1833989713550752 
0 
0.8499703426764759 
0 
-0.3874653360609077 
-0.3863758611147527 
0.3167385933765586 
-0.1334491818198773 
0 
0 
0.2605573803202477 
0 
0.3932658510744257 
0 
0 
0 
0 
-0.001452822247881996 
0 
0 
-0.2774985068859255 
0 
0 
0.1835927581283909 
0.3711070496144436 
0.1333073463840153 
0.1671855258676684 
0.05382054767228229 
0.6414804017021998 
0.356939328512038 
0.2956149428496237 
0.3261888375914021 
0 
0 
0.03191083613997022 
-0.00185399575265156 
0.1067291473099411 
-0.6462364094503943 
-0.1882143499871238 
0.1632016343704339 
-0.232418349074216 
0.3386615130881459 
0 
-0.4475775672248634 
-1.103165795770212 
0.1945953485699328 
0.8670159824662276 
-0.01652694896900528 
0 
0 
0.3622393455306276 
0.05682215810213002 
0.05479442523933491 
-0.2981295975765053 
0.0002464268129812647 
-0.1257858045724651 
0 
-0.005876541258094916 
0.2182094073719681 
0 
-1.369851407450145 
0 
0.7214398303780855 
-0.3934479030596452 
0 
0.6083636779801657 
0 
0.2894660801383709 
-0.08166069129975892 
0.4193035246909219 
0.2423842897842461 
0.09584632161842117 
-0.3126704070668094 
0.2759970107700365 
0 
-0.3079495541712975 
0.1528578396077747 
-0.7033871785603744 
-3.252972620992094 
-0.3257915915921588 
0.08476248106123617 
0 
0 
0 
0.4391526196139021 
0 
-0.4960712961628598 
-0.5003108615646453 
0 
-0.00428596682334373 
-0.09160128048064077 
-0.915650849892734 
0 
-0.1735378922253699 
0.1864419593101869 
0.186878071471644 
0 
0 
0.07557821910743553 
0 
0 
0 
0.09834891243458757 
0 
-0.003769332556095066 
-0.05992647532756545 
0.1115647857776735 
0.4715077911929066 
0 
0 
0.6974785882525006 
0.4836549159002736 
-0.3105399272542882 
0 
0 
0 
-0.5986609818411445 
0 
0 
-0.1476042953075064 
0.146784759611149 
-0.2987322201126919 
0.4053982572474812 
0.8227925341257876 
-0.3329885754742697 
0.07019048998247135 
0.1648151442390279 
0 
0 
0.1906253712642984 
-0.508403652606721 
0 
0.1018735187682253 
0 
-1.003243385084541 
0 
-0.09744141497944556 
0.7544526518991189 
0 
0.2698893771428666 
0.3932721626326408 
0 
-1.825666894359807 
-0.6188812206232235 
0.3125483655993628 
0 
0 
-1.531791541043907 
0 
-0.1150043482705768 
0 
-0.1906101554625155 
0 
-0.09671462351822958 
0 
-0.08968262700304917 
0 
0 
-0.3010066478297763 
-0.2220893807055763 
0.06925535838829427 
-0.001100423992308654 
0 
0.2857781795506784 
-0.6264557915124288 
-0.6739170675052777 
0 
-0.4693762334205301 
0.4674414071445486 
-0.2700863335319778 
-0.2616877707963414 
-0.2028121656219054 
-0.0220085380985808 
0 
0 
0 
0 
0.3186264707437891 
0.3522819624197037 
0.001161384925248497 
0.3686656854042768 
0 
-0.3291126194370833 
0 
0 
-0.1525348492587029 
0 
-0.4039175470366088 
0.501256927268234 
-0.3354760094547238 
-0.5879853158616836 
0.4811306693322634 
0.2420739438953551 
0 
0.1186295130185878 
-0.03695232265137517 
-0.1582409847991568 
-3.473690194278585 
0.1083242312750113 
0 
-0.2760402809228566 
-0.1463442005594611 
0 
-0.04396113625454934 
-0.0218647617785442 
-0.08082638234088906 
-2.391715543751475 
0.08058072233540776 
0 
0 
-0.4878968741725875 
0 
0.4284533276780561 
0 
0 
0 
-0.07992374201984472 
0 
0.04921784742041755 
-0.07380452413613883 
0.1551463866030283 
0 
-0.9106054906966744 
0 
-0.07718459350529015 
0.5541733607982352 
-0.1767643344002618 
0.3115871940467498 
0 
0.2732130428274522 
0 
0.3502799285666449 
-0.3609471479965103 
-0.20388312620468 
0 
-0.1863424249369545 
-0.09399076486547986 
0 
-0.1137861814478562 
-0.2462521639814829 
-0.1446868301523821 
0 
0.4370766701820427 
0.165923794199266 
-0.4523220452162827 
-0.3473445289663842 
-0.08519994248203831 
0.004982075346904799 
-0.1500029616637475 
-0.8057767549292616 
0.0993133202665718 
0 
0 
0.612993118005339 
0.1383303170346894 
0 
-0.04026618961473978 
0 
0 
-0.7761843336126285 
0.3227038742206219 
0.7437512365203033 
0 
0 
0 
0 
0.3456797959507795 
-0.2532762703362072 
0.2010513059256583 
0.3067416809361818 
-0.1029865263218838 
0 
0.2251337442093105 
0 
-0.8404274151611905 
0 
0.1357503768311117 
-0.06984777725122718 
0 
-0.7734477203093547 
-0.117205240654323 
-0.4655440090097441 
0 
0 
-0.007237344082314783 
0.05846395591273587 
0 
-0.561029416271161 
0 
0.02423973121051578 
0.6004030797144455 
0 
0.6125056491919932 
0 
-0.1796624700255107 
0.1650920510784838 
0 
-0.2354890261551247 
0.2108667981589875 
0 
0 
-0.04595875066920125 
-0.5965517137907691 
0.161254697752861 
0 
0.3881785400806417 
-0.2046079495568056 
0.2168508549832084 
0 
-0.04565910830685613 
-0.04729540469477192 
0.3309861105197842 
0 
0.4800808698236339 
-0.02271676693831504 
0 
0 
0 
-0.6301664670659133 
-0.3418665670350169 
0.06787609626888032 
-0.3281396692530744 
-0.03834518235943649 
0 
0.1047562865934661 
0 
0 
0 
0 
0.8313865006778022 
-0.4909498405120781 
-0.3083492110643593 
0.2282652367189423 
0 
0.1927065772108806 
-0.3613667583136602 
0.2531975907591592 
0 
0.40393879628799 
0.08469313664061093 
-0.02091298192125576 
0.3373613594120392 
0 
-0.7667105469660817 
-0.2692121260792881 
0.1306221635594784 
0 
-0.2606214534901863 
0 
-0.1277136207675739 
0.2481808297566258 
-0.1296171100657116 
0.5035864522333241 
-0.2717296848823824 
-0.05519432543271756 
0.2755351085046903 
0.5168937183956253 
0.2327770850169891 
0.5320139000833357 
-0.8018155929576378 
0.1085871597588473 
0 
-0.08404800920977189 
0.07727345773353642 
-0.4875529000478778 
0 
0 
0 
0.7215722558691635 
0.2276698548810837 
0 
-0.2763433842980839 
0 
-0.100835609777696 
0 
0 
1.122670876519833 
-0.1703186801429913 
0.09712185317827784 
-0.1636145732884861 
0 
-0.06049324708452698 
-1.127393955736202 
0 
0 
0 
0 
0 
0.1978403855261917 
0 
0.07769191599570677 
0 
0 
0.2430185252879053 
-0.4274682581418198 
0 
-0.04715309923687443 
0 
0 
0 
0.52496428179189 
0 
-0.001306274476201278 
0.1101014553109754 
0 
0.4497578469359955 
0.1931479116454549 
0 
-0.3166232240227167 
-0.3041592490657198 
0 
0 
-0.7257059531344179 
0.5320545646915875 
-0.1456044371834554 
0 
0 
0 
0.114486315013476 
-0.1580066217413568 
0.1715746278190073 
-1.469302654452747 
0 
0 
-0.09385383771888289 
-0.1100689932635592 
0 
0 
-0.3733735314261104 
0 
0.4795703392368725 
0 
-0.4000764648168334 
0.03857981729765411 
0 
0.1954831759170199 
0.3540217294383388 
0 
0 
-0.5559017859521203 
0.537745191163125 
-0.08896056475276663 
0.2363578818599495 
-0.4324643570133692 
-0.1641931268838247 
0 
-0.2429699294989244 
0.802197429511128 
-6.219069952315528 
0 
0 
0.02232945223952345 
0 
0 
-0.1787882826188384 
0 
0 
0 
0 
-0.2248798053463714 
-0.4720331192208491 
-0.4184827829646082 
0.3885287937658949 
0.1179092300177174 
0.2122422239077205 
0 
0 
0.337821517904328 
0 
0 
0.07562183668464596 
0.07323645803284044 
0 
1.192073231862158 
0.2572500597953125 
-0.7288108501248619 
-0.6488509742553743 
0 
0.1050541843401386 
0.5017420637106521 
0 
0 
0 
-0.5411502590305554 
0.2528200239917364 
0.4357675078946209 
0.01976919182060722 
0 
0 
0 
0 
0.5013486790511187 
0 
-0.1234202201517506 
0 
0 
0.5824869360914897 
0.02152576263599453 
0 
-0.1014558259122439 
0.5278790749368704 
0 
-0.07203208048575065 
-0.1675785687360316 
0.126829657894979 
0 
0 
-0.1285707821483751 
0 
0.155722547403538 
0.03776905927749683 
0.2196951843933178 
-0.4072128077224852 
-0.5912306777909904 
-0.2202593844541312 
0 
0.4855088180976577 
-0.484001956946314 
-0.1449490254266281 
0 
0.006434939373889326 
-0.3471384148224343 
0 
0 
0.01633255856738901 
0 
0 
0 
0 
0.1236223267486478 
-0.5903204185501975 
-0.03850429794200598 
-0.1071117470133019 
0 
0 
0.09568773166927333 
-0.1358286011873132 
0.01712627001859622 
-0.0829578759617004 
0 
0 
-0.1856274325271756 
0 
-1.261140666944912 
0.2368538512509814 
0 
-0.3068022794440595 
-0.9316166255441652 
0.3834671594650251 
0 
0 
0.2071160407599915 
0 
0.1350136859429653 
-0.5474589693200133 
-0.01860524317953743 
-0.5343377767074396 
-0.3075914089453469 
0 
0.8628562982885514 
0 
0 
-0.2798481190367039 
0.6993089476966077 
0.3574239943843344 
0.5350481297302986 
0.6247132466936255 
0.1317865987449305 
-0.1027527163140878 
0 
0 
-0.4303680825708179 
-0.3690386065838391 
0.1344073638265631 
-0.09834818742657384 
0.08746016420555244 
0 
0 
-0.2621218723046232 
0 
-0.3960418364645903 
-0.1617555036330236 
0.2344747753101025 
0.3007965506222818 
0 
0.2037871913847031 
0.5745791928977971 
0.8634200203771049 
-1.418757483680242 
-0.6864086967790891 
0 
-0.6873054183271061 
-0.3340661071152247 
0 
-0.2771179021040704 
0.8605435122939152 
0.3986721597443734 
0 
0 
-0.04373013061704467 
0.02827310307199962 
-0.01384685090968914 
-0.1848813779387947 
0 
0.56245935745901 
0 
0 
0 
-0.1027932866389959 
-0.6296831373079137 
0 
0 
1.092944905350096 
0 
-0.1041043896494059 
-0.06930177108686777 
-0.05897854190108519 
0 
-0.306225308747043 
0 
0 
0 
-0.01544520323767794 
0 
-0.09326175091677238 
-0.1750957362722549 
0.07335461850297398 
0 
0.57634755283616 
-0.05841649798024376 
0.5066701191050871 
-0.1668114353064314 
0 
-0.0843270275013064 
0 
0 
-0.1841040500411039 
0 
0.1673099824441494 
0.4063597047704757 
0 
0.2334865553884182 
0.4095255014187381 
0.5176809749549268 
0 
0.5374582591435368 
-0.1556197313777198 
0 
-0.06328895322190289 
0 
0.3594163550060521 
-0.005521879599167233 
0 
0.3433277725136776 
-0.3081379558415485 
0.215254368871111 
0 
0 
0.480487394700887 
0.235964107451423 
-0.2053899297863476 
0.02502061644648388 
0 
-0.3861032115908002 
0.5220127674152721 
0 
0 
-0.3381807742853637 
0.3430606397911281 
-0.1096776358165668 
0 
-0.1783518735034341 
0.3329966335842121 
-0.4532553555788247 
0.3339438542493664 
-0.2426793607338315 
-0.3917299903056213 
-0.2168086074066112 
0 
0 
-0.004625639758310627 
0 
0.203368010038798 
0.2106145876721424 
0.2996666807515777 
0 
0 
0 
0 
0.1794986938419979 
0.9322855212690284 
-0.3187695714581728 
-0.001369900187988517 
-0.2478300382232831 
-0.0259988566475177 
-0.6714764425248965 
0.1639418815923728 
0 
-0.5616841160756556 
0.6321911039458037 
0 
-0.4343026392530168 
0 
-0.02676683082963188 
0 
-0.6157771741214977 
0.2246039536260832 
0 
-0.2275287220157282 
-3.349765853028142 
-0.006496902503609242 
-0.004914569667455324 
-0.3594809634977231 
-0.01019306708386315 
0 
0.05384265819306325 
-0.2452401179250443 
-0.1086793627571408 
0.5652936574330607 
0.2813820522318026 
0.4854755172431792 
0.07953551073386396 
0 
0.2734614420144533 
0 
0 
0.04268979609914973 
0 
-6.006205810351032e-05 
0 
0.1289889821074723 
-0.04847509119148188 
0.2460566309986069 
0 
0.1029000043074167 
-0.3984844162511167 
-0.2311984698007991 
0.5565118146707917 
0.04156394702644167 
0 
0 
0 
0 
0.2392479955486643 
-0.8837579667249297 
0 
0.03832715735988304 
-0.2867269529408399 
0 
0.5359119549298735 
-0.1339911915868669 
0 
-0.4820236341828041 
0.2222000965590488 
0 
-0.8573352630039344 
0 
0.4951414134327837 
0.1007633100401576 
-0.01521184452021451 
-0.1777290531485509 
0 
-0.4815193772188291 
-0.06794101439815647 
-0.7379803737140306 
0.208616530338884 
0.007756740130617779 
0 
-0.02759501181972631 
0 
-0.1345288873868061 
0.4289839685117746 
0 
0.3033844357325303 
0.1134129889982956 
-0.2852020233869877 
-0.04498258506452545 
-0.7329843609078598 
-0.7027462547771 
0.06059526969250042 
-0.08098027051384321 
-0.07474236276941806 
-0.2002240141245504 
0.3119985134650242 
0 
1.591078604498462 
-0.6338473225364003 
-0.002565245174414924 
-0.1353937532749399 
0.291728008234554 
0 
0.5626247043379198 
-0.4515602167467438 
0 
0 
0.3153474411473291 
0 
0 
0 
0 
-0.6180510267207517 
0 
0.5639054594663259 
0.07803135672766852 
0 
0 
0.3399841421292081 
-0.2099623396531047 
0 
0 
-0.4397882485558595 
0.005857656488341275 
0 
0 
0.1685023713855536 
-0.7481552828537796 
0 
-0.6443416182374478 
0 
0.08705575594759997 
0 
0.4886275086434798 
0 
0 
0.1979670975766048 
-0.1345394279422185 
0.6548217177088965 
-0.1370009324026066 
0.43727354414494 
0 
-0.1093827916206712 
0 
0 
-0.2477408000726069 
0.02586802399014494 
0.6791764189486944 
0.555999687521371 
0.2569485738998468 
0 
0.1576989748692823 
0.1233371982707725 
0 
0 
0.05605429920489606 
-0.4445446802202086 
0 
-0.03795798199490491 
0.2896355575201486 
-0.9830332240871962 
0 
0.2009413985115956 
-0.1337020794288298 
-0.9348823681461609 
-0.1262961542841518 
-0.4304337554309646 
0 
0.02075252538484596 
0 
-0.3927413417099215 
0 
0.1105214489084204 
0.2295460725487406 
0 
0.07017763824240257 
-0.4086282777053339 
0.3481269503445916 
0 
-0.006697316781485947 
0 
0.9320828706661318 
0 
0 
0.4239295636436649 
0.1328446330699631 
-0.3976662778230852 
0.1526215937821546 
-0.1486261667535528 
0 
0.01678255138262018 
0.189836229922403 
-0.2282744866425317 
0.5004423277815896 
-0.1434394062698654 
0.8000016209825663 
0 
-0.07235113946170457 
0 
0.1928603097270813 
0 
0 
-0.03739469203746263 
0.08971566026760949 
-0.03799081076785796 
0 
0.1924834058623679 
0.1622129767193508 
-0.4286422851289775 
0 
0.9161085791952301 
0 
0 
0.5851108169592598 
-0.6918174729210068 
0.1162112103881661 
0 
0 
-2.177396702581246 
0.4876177304523396 
0 
-0.4175167156331139 
0 
-0.2047639522073133 
0.1789506167417978 
-0.1883854909590267 
0 
-0.2573820852740505 
-0.3180231416964126 
-0.002795637298958084 
0 
0.4201922962145886 
-0.197096919050827 
0 
0 
0.02176703771452135 
0 
-0.4059424892952819 
0.05067218887331223 
-0.5052381595531695 
-0.3344806109109427 
0 
0 
0 
0 
-0.4036307184819631 
0 
0.03757652396599419 
0 
0 
0.8205370042852635 
-0.7162596266003821 
-0.1606637609819147 
0 
-0.1030281613708576 
-0.3072566922507009 
-0.1604525293117312 
0.1479338819392511 
-0.2598891846083149 
-0.03896185784600027 
-0.1633655390427884 
0.1593545179521802 
-0.6909894932823399 
0 
-1.262283672873406 
0.2611765824592184 
0.2276580997247286 
0.1609939010526865 
-2.930035975626673 
0.0754886407280049 
0.3127843605358785 
0 
-0.2651775585254616 
-0.1272460642543585 
-0.1078386740494007 
-0.5130796906883521 
-0.02840359620179563 
-0.521911996439095 
-0.09175283777073581 
-0.02041414468460175 
0 
0.5173609637231397 
-0.1557227107162467 
0.5153168030437375 
0 
0.2031586645692054 
-0.046541192199319 
0 
0.4721907945293953 
0 
-0.7075577991763113 
-0.01717430442346233 
-0.3844507235365001 
-0.2292109019010286 
-0.4880244735184458 
0 
-1.130336471475064 
-0.04659350047823525 
0 
0.2397772304133501 
-0.2884539855151844 
0.277188343471962 
0.1987823093683031 
0 
0.4013829602241981 
-0.3356295247855321 
0.299437954801436 
0 
0.4964006126398253 
0.06165275511184144 
-0.247266691237039 
0.4727960973406168 
0.2663992629290302 
0 
0 
0 
0.1257133126932841 
0 
-0.4364577431359388 
0 
0 
0.2820755126799447 
0.2112186161187131 
-0.1783006478082972 
0.08847818289962407 
0 
-0.6069734107592445 
-0.4534870058937616 
0 
-0.349028049379302 
-0.1123261274935605 
-0.3599606580189594 
-0.05091642117369202 
-0.003771466746774225 
0.1038950692953914 
-0.9571356529761674 
0 
0 
0 
0 
0.1997530313359165 
0 
0.1417886590442941 
0.3345596601222671 
0 
0.01945815411607811 
0.5582177542643488 
0 
0 
-0.84947288085272 
0 
0 
0 
-0.1447732028125955 
-0.179982801371429 
0 
-0.2112199464648903 
0 
0.7749210759100967 
0.86274255798788 
-0.004208115580054524 
0.2259546408836973 
0 
-0.1628400644533975 
0 
-0.02199490058013156 
0 
0 
0 
0 
-0.6973666546206381 
0 
0 
0 
0.7587302919048534 
-0.4899353756239064 
0 
0.175179410783554 
0.233341618944551 
0 
-0.2121135174263294 
0.2526465287307604 
-0.002673620537106439 
-0.001320963102792027 
0 
-0.03016162222106793 
-0.02037010013250963 
0 
0 
0.1735368499218205 
-0.4192468699480703 
-0.2148231300242508 
-0.6766981925772577 
0 
-0.0329832982305526 
0 
0 
0 
0.4160729961710943 
0.2597610305897037 
0 
0.7934723778934147 
0.6180835991551742 
0 
-1.043696991039039 
-0.2944473548019604 
0 
0 
0.311483321482541 
0.1090538537578184 
0.1449352915049568 
-0.2216977168626766 
0 
-0.1850896364716485 
-0.4619638889187341 
-0.0877445454721666 
0 
0.2568773530294888 
0 
0 
0 
-1.256720509451505 
-0.1642449157048839 
0.2642766418184086 
-0.01498584143560618 
-0.4450003020861503 
0.2018193229297119 
0 
0 
0 
-1.685564252451285 
-0.60963194437222 
0.1113987658490436 
0 
-0.5943795838871632 
-0.3536685744320349 
0.3114901731467707 
0.1185364661221091 
0.1720232235789903 
0 
0 
0 
0.02736918000196742 
0 
0.1023486286365505 
0.8704598973924073 
0 
0 
0.2760313940948673 
0.05651079551052807 
-0.2251908418265528 
0 
0.09960585729266476 
-0.3391691059358081 
-0.2335974858875942 
0.5252989660534768 
0 
0.006012130273336318 
-1.26520212753828 
0 
0.2967987680155037 
0 
0.5891083941567956 
0 
0 
0 
-0.1198182792206019 
0 
-0.4595581166944721 
0.07274542025573158 
0 
0.2835014076143608 
-0.5636665889725633 
0.09237001486970706 
0 
-0.04653522723652066 
0.2332611513825893 
0.2771920467101726 
-0.0360934293031491 
-0.1200850235434613 
0.1090389485889621 
0.08460456988423527 
-0.07360988470991102 
0 
0 
0 
0.4226027806676099 
-0.3736929125115397 
0 
-0.0009602427996816404 
-0.826997705988495 
0.701325206715801 
0 
0.4033149598623053 
-0.2585830190237207 
-1.539242421337804 
-0.06592616425640403 
0.4852976785401028 
0.5618752183429025 
0 
0.4972917155583353 
0.900086864264328 
-0.1855450638374279 
-0.2471189513983319 
0 
-0.2576034490948133 
0 
-0.2138331202092787 
0.4030394703024102 
0 
0 
0.2543212070015077 
-0.3291603330024655 
-0.3547228199752228 
0 
0.1679391102743679 
-0.3623081139629294 
0.4344196119836696 
-0.4652540698038762 
0 
-0.4697271529542117 
-0.03163940659680219 
-0.2168473445906072 
0.6645228672235065 
0 
0 
-0.1390322594398311 
-0.3085449724738906 
0.7649597691725463 
0 
-0.5794108766126943 
0.4668476990626286 
0.9854583295839091 
1.333984310969108 
0.2327615648554145 
0 
0.2571330529845495 
0 
-0.4529079121313709 
0.1123201213073382 
-0.05018486216223113 
0.3581199354776208 
-0.3595652075080848 
0.02171356121748218 
0.02733805348470608 
-0.2442128771647326 
-0.6413344046621876 
-0.2972858471357617 
0.05008486651537503 
0.3924371847358564 
0 
0 
0.3405848920093022 
0.0064419865547987 
-0.6417852855905939 
0 
0.8174925818973385 
0 
-0.09022427498929296 
-0.7912738887599864 
-0.5806202132317917 
0 
-0.5311840852810573 
-0.003444169106090552 
-0.6655955403257907 
0 
-0.01297092180107217 
0.2049152667979195 
0 
0 
0 
0 
0.05970554200712801 
-0.05439623355867308 
-0.0027126280163558 
0.02774545628097428 
-0.1571575540651395 
0.1765219812064261 
-0.5017026757807421 
0.1246706302693219 
0.1756032123386862 
0.1304442251716347 
-0.4977187560604595 
-0.06245973165242974 
-0.08831470257436316 
0.2048350039979322 
-0.7935617702146101 
0.1202126577338605 
-0.2240281438238472 
0 
-0.0614692339523621 
0.7065863391389839 
0.1343623470117558 
0 
0 
0 
0 
0.1376032948266586 
0.2072178906274136 
0.7370076979883246 
0 
0 
0 
-0.3004734413569229 
0 
0 
0.3072973460820759 
0 
0.2182686502578295 
0 
0 
0 
0 
0.8484553252102376 
0 
0 
0 
0 
0 
-0.1801006876518779 
-0.4912456226089412 
-0.300116396090799 
-0.4102863115859433 
0.0003964810069753413 
0.1369894077922001 
-0.01579141985945111 
0.6637663580780231 
0 
0.2947585381766553 
0 
-0.1579101136510419 
-0.8080130630128968 
-0.6509387203464678 
0.1872866033244119 
-0.08727877872519894 
0.2008752287406806 
0.1612125235041388 
0.2405398417094173 
-0.05272593072866946 
-0.3982330489662932 
0.199703479115842 
-0.8191874239669743 
-0.1750797278718926 
0 
-0.08277847371483794 
0.2837806910036471 
0.7050914899773548 
-0.0990999543872574 
0.218877176862946 
0 
0 
-0.4094255956709404 
0.2543178415617537 
0.2792435489607042 
-0.03369917913953232 
0 
-0.6463586349416295 
-0.05577336808656595 
0 
0.3431538597640486 
0 
0.3479379154085234 
-0.4108154321754306 
0.02542923014677222 
0 
0.09679546768364486 
-0.9787317062609524 
0.2245945474784486 
0.2714553824893253 
-0.1694495249654989 
0.0002963625849323557 
0.8203965201200281 
-0.1403628734714 
0 
-0.2741762840893671 
0.4323623072703029 
0 
0 
-0.2684771312250568 
-1.162746893659472 
-0.2533914755532912 
-0.1836668087134105 
-0.3022854657261391 
0.8846268981359646 
-0.03236763685195893 
0 
-0.392779688774812 
0 
-0.07689197416991385 
0 
0 
0.2707955027688476 
0 
-0.2071207066825815 
-0.2051773565238302 
0 
0.1742513479302379 
0 
-1.238338610172465 
-0.2921799159467091 
0 
0 
0.9595868890301488 
-0.006088562767903609 
0 
-0.7136291865986083 
0.8851431594930932 
-0.1474334383090891 
-0.5646052585618376 
-0.1281985692210322 
0 
0 
0 
0 
0 
0 
0 
0 
0 
0.1548172563717067 
0 
0 
-0.1265663731173813 
-0.2003598472912747 
0.04468910524563729 
-0.3887542612832371 
0 
0.1259153734370112 
0.08765410706724898 
0.1950174200758956 
-0.04382698347681688 
-0.5376355402706958 
0 
-0.07720867305182529 
0.01415609513331786 
-0.1121196841857502 
0.5417087830486959 
0.823550378860192 
0.5739899369130587 
-0.02115926546078678 
-0.04507824349887633 
0.4098529437957235 
0 
-0.2620034665058744 
-0.002327739001289432 
0.3294188350569512 
-0.1795885704089313 
-0.4511599883582219 
-0.1094740410837415 
0.0001280271849787292 
0.2050110046984447 
0.00735339269122675 
0.139633381141665 
0 
-0.7294298742266954 
0 
0.516511130983658 
0.4377335309537513 
0.1522549967126114 
0 
-0.2782007871015957 
0.05595118531318015 
-0.2046142329952753 
0.5910736047839948 
0 
0 
-0.4267465535091844 
-0.02979170986151049 
0 
0 
0 
0 
0.2474718971141327 
0.08804218593803048 
0 
0 
-0.2299087120092071 
0.246434180204098 
-0.1316427070564601 
0.09012845418356162 
0.1057966753653801 
0 
0 
0.009158212427001051 
-0.002096211624211067 
0.8000931968750697 
-0.1102222566185091 
0 
0.1416654143495537 
0 
0 
0.618911177508328 
0.5345864509516963 
0 
-0.1789434374737602 
0.1853373188216749 
0.237552431852714 
0.3370054032740507 
0.6990515191264244 
0.1149940593624438 
0.2239305203926095 
0 
-0.5541409023994323 
0.4215792897997055 
-0.1495666757771886 
0 
-0.2214591731391528 
0 
0.3843481682576642 
-1.708380272460885 
0.4112256614789717 
0.08058766800574681 
0 
-0.152825685140338 
-0.1383075204551757 
-0.4770972368956557 
-0.3525687480504943 
0 
0 
-0.5123286441904671 
0.2117337223072324 
-0.1052001841826498 
-0.7758423045852199 
0.4268840830718481 
0.5399619248325441 
0 
-0.02697363059450213 
0.3126143805898825 
-0.2137862567654635 
-0.03567869827604708 
0.1111662923401286 
0.3210384223772016 
0.2193756542764915 
-0.06375572592312764 
0.428126685328921 
-0.09799384490990064 
0.265860035637414 
0 
0 
0 
0.5153606100430708 
0.02370730455632312 
0.1792134102947461 
0 
-0.2475909311282242 
0.09089613283367404 
0.161686330427371 
0.1579641438217582 
-0.1796308780119934 
-0.3228159029144837 
-0.3900199544487368 
0 
0 
-0.1552652238835178 
0.4883428620400543 
0 
0.008612921910297553 
-0.08324341104685268 
0.353153252349141 
0.8140211106781656 
0 
-1.759063388077317 
-0.4038568036899883 
0.2252566517963772 
-0.05528193832192389 
-0.02009596818069294 
0 
0 
0.3655332207342171 
0.1781737189155041 
-0.227019672868123 
0 
0.9009794047567424 
0.2372231196513186 
-0.1119971432098406 
0.7490932928380291 
0 
0 
0 
0 
0 
0 
0.2350703811243313 
0 
0.307174865217711 
0.2376214317353093 
-0.1804088418061635 
-0.1422557968856443 
0.03179173402550102 
0.6077604017488035 
0 
-0.7241243365886203 
0 
0.8127120227304537 
0.2119440197204971 
0 
0.2936926571317135 
0 
0.003254051608468965 
0 
0.7644816424049213 
-0.02993928184008353 
0.7084861966888051 
0 
0.3618278648216633 
0.3231528944412961 
0 
-0.3790250952319845 
0 
0.680837350094033 
-0.04697326549970575 
-0.1663385698367019 
-0.8745815820095902 
0 
0 
0 
0.02989084119531507 
0 
0.01302365049421801 
-0.3928514722358687 
0.2130347557417105 
0.08022262607776529 
0 
-0.6976539676635288 
-0.01654130421234485 
0 
0.3415308512351423 
0 
0 
0 
0 
0 
-0.1770161853844597 
-0.08157543475061779 
-0.5670209664286345 
0.2312828702829249 
0 
0 
0.2354255920273486 
-0.3421443669786705 
0 
0 
0 
0.380582136069257 
-0.3041197315136983 
0 
0.02629766482898194 
-0.1778903561106505 
0 
-0.1694946859859478 
0.233411959417463 
0.6397610329363949 
0 
0.07580016604603856 
-0.1877209623271899 
0.09620681550183667 
-0.06709053187836395 
-0.2081176393610787 
0 
0 
0.3433328767199915 
-0.3370773476901419 
-0.3075847005078951 
0 
0 
-0.1659236260827964 
0 
0 
-1.18234690144105 
0.3857964730150305 
-0.2835690022046241 
0.4790874930504491 
0.4270771381615644 
0.1256652519575646 
0 
0 
0 
-0.2396444810293233 
0.03453276617999488 
0 
0 
0.007438969299053081 
0.4591296660170678 
0 
1.64648949448906 
0.3086954588518843 
0 
0.1337313361048067 
-0.4076685272640231 
-0.5980979066562604 
-0.04937614485265152 
0.2478956545660253 
0 
0 
-0.9121131614064226 
0 
0 
0 
0 
-0.001490942349027674 
0.1076352791956989 
-3.368840827524725 
0.2552797215184628 
-0.1539265931193173 
0 
0 
-0.1035355686227828 
-0.3793286333174367 
0 
0.08113136371615758 
0.3173244360896699 
0.0508776023550492 
0 
-0.3824153489285776 
0.2226436504699334 
-0.1016921200363828 
0 
0.3499332269049977 
0.1855798439034984 
0 
0 
0.13669465691399 
-0.004618224931580235 
-0.2347370607810888 
-0.0008190700952382969 
-0.07299474809367885 
0 
-0.5477197075170405 
0.1398190658106187 
-0.002292939861660473 
0 
0.1911562435307204 
-0.3127071176594328 
0 
0 
0 
-0.6558535285302598 
-1.187039678734528 
0 
-0.08965982580383464 
0.5558750072540566 
0 
0 
-0.2851822818242691 
-0.6354900557108283 
0.1114685381309523 
0.2828406838728296 
-0.2954712321427129 
-0.6637834023923309 
0 
-0.8944900556269549 
0 
0.3346757574870016 
-0.3281337503300325 
0.2042036175817837 
0.1859436366930202 
0 
0 
0 
-0.6070890875115216 
-0.3447939786200907 
0 
0.3234510336396211 
0 
0.04447286587772356 
0.09064824883372412 
-0.1183700718915375 
0.501226185507069 
-0.2475753817489975 
-1.260534384726521 
0.4931878173844788 
0 
0 
0.7505736337363779 
0.05423298176564873 
0 
-0.4238000151504415 
0.2103967014468925 
0 
0.2888632768670621 
-0.3923274528512794 
0.001353949937641406 
0 
0.3388618044961274 
0.1308908503232865 
0 
-0.6435214951457474 
-0.7409992014185296 
-0.2339693668865249 
-0.1750865195119977 
-0.8297053397858141 
0 
0 
0 
0.1141951833647604 
0.1290218170390756 
0 
-0.2409251612313719 
0 
-0.6523071026601694 
0 
0 
-0.08966523973634824 
0.01634998709883931 
-0.1529947295352397 
0 
0 
0.02085147076733981 
0.4943775914014034 
-0.02777016601914923 
0 
0.2800150462984549 
0 
-0.2517898672809669 
-0.08395874846333734 
0 
0.1467350700013052 
0 
-0.21654592608377 
0 
-0.2299700926540378 
1.12601072153833 
0 
-0.1436052089045058 
-0.02059672476642039 
0 
-0.28523100218946 
0 
-0.6323582842021427 
-0.4587866977560759 
0 
-0.6779471519148127 
0 
0.0101878879511159 
0 
0.8029839911027531 
0.2480348703795262 
-0.1610292698548018 
-0.4488320340360382 
0.6919168343493365 
0.06763792083567893 
0 
-0.02051061050145402 
0 
0 
0 
0.618697647204045 
-0.6881385042351463 
0 
0.7919393790147675 
-0.08289054011707651 
0 
0.2638859015350957 
-0.2061180730593287 
0.01306669618799124 
-0.2057319834897257 
0.640521989788529 
0.06295963580973279 
0.1171918053011856 
0.444387803892104 
0.3409363604020195 
-0.6004455494816391 
0 
-0.08190995556515228 
0 
0.1644059277948398 
-0.4505072084941729 
0.2893444114419084 
0.3403434243932899 
0.07962803014720053 
-0.3120175229111259 
0 
-0.6350819121357054 
0 
0 
0 
0 
0.03042686084375494 
-0.9353580734726298 
0.005058750844065403 
0.07560477763637508 
0 
0.1531023975268506 
0 
0 
0.4118831079999866 
0.0001103756129925786 
0 
0 
-0.03512256021391615 
-0.1418947799475079 
0.7072982295076945 
-0.3229571402468406 
-0.1661473854840075 
-0.007528618253120243 
0 
0.6385707148590681 
-0.6823387662928371 
-0.6944642129034949 
-0.08752488049394501 
-0.1867502266669249 
0 
0.0254360226064896 
0.1491624192053113 
0.3207322270663337 
0 
0 
-0.498183341760455 
0.3183517484462458 
0.1989781022250519 
0.06602331287490157 
0 
0 
0 
0 
0.08396678517220092 
-0.1211232131755196 
0 
-0.03016778739276415 
0.0005060714859865321 
0.3324969995522148 
0 
0 
0 
0 
-0.7617706288365637 
-0.591110201745494 
0.2481573299997784 
0.5757541007272245 
0.1431945327579718 
0 
-0.1558501436439384 
0 
0 
0 
0.03919437288387832 
0.07459834824004943 
0 
0 
0 
-0.3331737349092476 
0 
0 
0 
0 
0 
-0.322932743682869 
0 
-0.08149649086085994 
-0.05852083478787204 
-0.1253979769180939 
-0.0286815151617745 
0 
-0.3114291519148217 
0.01122400492109596 
0.1125747707353204 
-0.1570215791967985 
0.21323805247147 
0 
-0.7431136709652025 
0.07308911817533734 
0 
0 
-0.1680722422157677 
0.3628550704073248 
-0.677416955765379 
0 
0.2207431751931583 
0.3946773630322851 
-0.2884744601485642 
-0.05674441631690468 
0 
0.3621623023480717 
0 
0 
0 
-0.01455241469722652 
-0.212033736780688 
0 
0 
0 
-1.222414835473794 
0.8004756630510041 
-0.04537374875819694 
-0.3523366305651049 
0.1208787620864985 
0 
0 
0 
0 
-0.9531992625536034 
0 
-0.0403884398263708 
0.1445265313778974 
-0.2095669890632177 
0 
0 
-1.420604431975884 
-0.2235446973705051 
-0.4777862820773589 
-0.5645019032832184 
-0.2214500258342635 
-0.1862817615107101 
1.035784407018425 
0 
1.229925566770313 
-0.1595217116701646 
-0.1374643905557846 
-0.1265062437663288 
-0.2585589868276897 
0 
-0.05856357078735264 
0 
0.2043837704460701 
0.1445316217871426 
0 
-0.2718630026301144 
0 
-0.21251798247709 
0 
0 
-0.6947871013004546 
0.3164859450859421 
0.556742994963879 
0 
-0.01961866506215718 
-0.2115163323707206 
0.09555415085783832 
0 
-0.2710269013125808 
-0.8404182997016419 
0.4445370429355311 
0 
0.1242677847889361 
-0.0608448329717009 
0.7175398133966452 
0.1758186577681113 
-0.124842209260292 
-0.07215734668089112 
0.3458714374890744 
0 
0.07675312789744423 
0.3273297071630171 
-0.5779286997749215 
-0.06434388765349021 
-0.004963485913775547 
0.1015714599745657 
-0.03812154964596142 
0 
-0.649013366000892 
0 
0.06332927555610268 
0 
0.5318856322404715 
0.05249671288959706 
0.05274396403606949 
0 
0 
0 
0 
0.3050266344654099 
0 
-0.001822557012043967 
0 
-0.548206213858728 
0 
0 
0 
0.01630082798270368 
-0.005955978871562655 
-0.1179433904114927 
0.01218376138574836 
0 
0 
0 
0.246303780604084 
0 
-1.23419926758973 
0 
-0.3812648379202968 
0.6931952090143423 
-0.254065874738133 
-0.04441031053105948 
0 
0 
0 
0 
0.4417007544408574 
0 
0 
0.1124161977901241 
0 
0 
-0.09623398372620121 
0 
0.1500524822112535 
0 
0 
0 
0.564210056358641 
0.08559696110239846 
-0.3031456611933897 
-0.3604494687658212 
0 
0.1402770005241508 
0.4057019827971178 
0.988796258901067 
0 
-0.06009502933325431 
0 
0.2420770658727341 
-0.287746994935152 
-0.01646355947336385 
0 
0.2844960678057636 
0.09360950572998861 
0 
0 
0.08667654325527031 
0 
-1.065065803943411 
0.1516792198420689 
-0.2110484628997475 
0.1306870490904363 
0 
0.1826782239397099 
0 
-0.2414770774894417 
-0.5904736730545073 
0 
-0.2309891011019374 
0 
-0.3694125671700619 
-0.02065843695315802 
0 
0.5578863723963192 
0.001815349491315491 
0 
-0.3089340615390725 
-0.7277112311764729 
0.2253837373650136 
0 
0 
-0.2792878388181659 
0 
-0.2710343736010117 
-0.0608070419538278 
0 
0 
0.03069348104705402 
-0.6011073541445194 
-0.2060226260803714 
0.2407999540309644 
-0.5053538537858433 
-0.1235257889961746 
0.1100360953271722 
0.1077571541550623 
0.01950942252673442 
0.08459886393532159 
-0.04206023302278528 
0 
-0.1761008857697368 
0 
0 
-0.1212267917272641 
0 
0.3943596519347083 
2.039800072488495e-05 
0 
-0.2096348804185484 
-0.2080769891689565 
0.2621962715025634 
0 
0.0887696133498804 
0 
0.08222985594665932 
-0.153361351603759 
-0.03474904463874069 
-0.3122058096448806 
0.5187859490669415 
0.195265739454346 
-0.3037083402145642 
1.238414662532234 
-0.757844513221931 
0.3324494033087096 
-0.1847533483862959 
0.08779735979691952 
-0.03978177806216671 
0.03514853980213461 
0 
0.8264986110428099 
-0.6348286531394278 
0 
-0.02282013212752044 
0 
-0.4820086809423622 
0.4544359075449745 
0 
0 
-0.5499482796280298 
0 
0 
0 
0 
-0.2992439420599128 
-0.1261917385568551 
-0.2368192336644195 
0.1182498731980431 
-0.6714893059431994 
-0.2949829320757048 
-0.1086082954443953 
0 
0 
0.9578838101318268 
-0.3121347730145975 
-0.09680372553232122 
-0.0298387055367519 
0 
-0.1272531422655906 
0.04655016184380846 
0 
-0.03162734413084174 
0.09779802717535126 
0.3842283005585684 
-0.5531411745112542 
0 
0.04924737215126075 
0.4404480473189571 
0 
0 
-0.5505091887455834 
0.02471290674937988 
-0.1086580446244084 
0 
-0.309643918209372 
-0.03610740660491415 
0 
0 
0.09929862067891347 
-0.4390225989779329 
0.4804199972554797 
-0.204337507326097 
-0.09149168428606209 
-1.619371580513225 
-2.850317068395986 
0.2335701005155514 
0 
0 
0 
1.459564320268702 
0 
-0.0582731999938397 
0.1657093603510789 
0 
0 
0 
-0.7490503436684431 
0.4100640051509844 
0.03942034761309713 
0 
-0.7548696885679981 
0.1648229018064749 
0 
0 
0.04547345853459878 
0 
-0.2982670094654429 
0.1830621308776907 
0 
0.6768842634692941 
-0.2133176507180043 
0 
0 
0 
-1.32979092574326 
0.2527135787705919 
-0.3205226370640697 
0.1506906757096972 
0 
0.02146795588333496 
0.1579714795852377 
-0.2876160652561237 
0.265461133187319 
-0.3536260389913722 
0.0435392330733913 
0.1273947216279243 
0.1646255097476776 
0 
0 
0 
0.8978685150313951 
0.6183062712792318 
0.1667759388146858 
0 
-0.274713823792625 
0 
0.217556370814579 
-0.01217432598752959 
0.218225710392916 
-0.3394481608733355 
0 
0.6380531687692891 
0 
-1.170328148461752 
0 
-0.6216255202656352 
0 
-0.7889495591427035 
0.04412915370439337 
0 
-0.0120569993787173 
-0.2892028397220636 
-0.1852799752506293 
0.1388879359693513 
0.008778400601341593 
0.2353739619657371 
0.01497865316621101 
-0.4464745145378012 
1.036320703413714 
0.1294830220535063 
0 
0.2238109287998541 
0.5106185532798126 
-0.6590789148109981 
0 
0.2071507481890106 
0.04508969992623505 
-0.4992424289316881 
0 
0 
-0.3515247984570297 
0.09891537815341353 
-0.04064780930105979 
-0.2515956062884039 
0 
-0.194330041583097 
0 
0.1527966116778964 
0.4927307067229107 
0 
-0.3474610736666202 
-0.2944563829884658 
0.1678721646697447 
0.3647216018615489 
0.5987114438908575 
-0.7108239438943422 
-1.162657625666558 
-0.3734632448554208 
0 
0 
0.000110249190532342 
0 
0 
0.04467510767193751 
0.4783681706570855 
-0.4916347307691599 
0.1535551288927119 
-0.7725473006924298 
0 
0 
-0.03492277917317999 
0 
0.02292247588324013 
0.08802076875793705 
-0.5582976990830646 
0 
0 
0.2363022381571554 
-0.3701790071766231 
0.360063759852784 
0 
-0.0843966951869526 
0.02102445304140838 
0.1575545637503086 
0 
0 
0 
-0.005366170393847857 
0 
0.37061858021752 
0 
0.007640809855857959 
0.3153816373002115 
-0.2830909068625573 
0 
0 
-0.04578456754727932 
0 
0 
0 
0 
0 
-0.08754739833133372 
-0.2287974251219717 
0 
0 
-0.6503102809670119 
0.896766848855365 
0.4051704438057674 
0 
0 
-0.4599718586870772 
-0.05915015662676004 
-0.4498020599910073 
-0.06814165927802236 
0.1046724751221306 
0.07837884335776596 
0 
0 
-0.4329352787000859 
0 
0.3583949643517707 
-0.09867075843931074 
0 
-0.1225867369988532 
-0.04731907856842773 
0 
0.2875830915813801 
0 
-0.231779646619288 
0 
-0.1310472011187861 
-0.1101345546135594 
0.290515775990535 
0.04810655601069047 
-0.02464370069460627 
0.1097660068968706 
-0.7498847116651468 
0 
0 
0.1173393201840151 
0.1388734349614666 
0.5034763734463671 
-0.07198651177518688 
0 
-0.5858427133266292 
0.04038278991765887 
-1.014785781256182 
-0.02025186120252916 
-0.1277010539596874 
0.0393402888245163 
-0.04442277863987765 
0 
0 
-0.2427055187577074 
-0.1008124618710974 
0.0841138787872118 
0 
-0.006448923140250837 
0.1234269681138574 
0.6598418416857375 
-0.1820194499511207 
0 
0 
-0.2158932354364682 
0.05235314334358438 
0 
-1.208657328470573 
-0.01693630666692934 
0.007994854984267032 
0.01719112886050055 
-0.1683183341703727 
0.2904844928957884 
0.04637526770179751 
0 
0 
-0.7645295033162319 
-0.1835814404364399 
0.05963781377494193 
-0.06388716129681773 
0.04031967919196967 
-0.3493876155267909 
-0.06442943380707056 
-0.1162195421554249 
-0.3406863559953415 
0 
0 
0 
0.06287446986867191 
-0.6031962569170178 
-0.3176736959816983 
0 
-0.1434370242628371 
-0.437677652214425 
0 
-0.2060603807075771 
-0.5685328706014557 
0 
0 
-0.08132844904173181 
-0.06089162237111233 
-0.07669284673917856 
0 
0.3919749566927843 
-0.2501216864428258 
0 
0 
0.008328852950609651 
0 
-0.1735002286983587 
0.9521586110228721 
-0.1048373849880793 
0 
-0.4768262297028432 
0.02423042314291695 
0.05782540666806524 
0.2542008003463979 
-4.707939111131564e-05 
0.3283951119919756 
-0.3835084594107406 
-0.2834533150297908 
-0.3872919175366008 
-1.248824710428574 
0 
0 
-0.4893696316109906 
0.5293169896051116 
-0.05720963082976502 
0.5666996140160229 
0 
0.2096018802696233 
-0.113182819736064 
-0.4730963850735932 
0.3402114447535294 
-0.4690064883458382 
0 
0 
-0.03363888052832233 
0.5133149749150445 
0.03932179959567092 
0.07376791475365926 
0.06219123424779582 
0.03518659260579892 
-0.04412808065046034 
-0.6750184667868351 
0 
0.01709496224024102 
-0.3106325235851951 
0.01658304207842104 
-0.9038221019007761 
0 
0 
0.3286097482704668 
-0.1387254438226871 
0.5821431575892356 
-0.1202615817220971 
0.5591457367584096 
0 
0.2558445083554165 
0 
-0.3053502526751783 
0.1321834756509158 
0.008877695790308995 
0.6685933143826841 
0.0848828949510816 
-0.3146552804125418 
-0.03167631434683497 
0.1719784853954173 
0 
0 
0.05909424646419756 
0 
-0.6003741254732877 
-0.178993103092854 
0 
-0.4244971954530108 
0 
0.05709412354599227 
-0.1103328082160355 
0 
0.01786741350361552 
0.004448957836061107 
-0.3876869778112157 
-0.7789833869579271 
0.165153820702031 
-0.1585019624060664 
-0.05779874285888879 
0.461845783044088 
-0.02371375404065504 
0.1643119019014056 
-0.002795637298958084 
0 
-0.4223006477494767 
-0.1757476272084119 
0.00276525103726492 
0.3497470028898452 
0.5442551860752493 
0.03156634569135825 
-0.1412828207339962 
0 
0 
1.04292497222099 
0 
0.06069509249596867 
0 
-0.2150424137571064 
0.0002148353366729153 
0.1569811697714437 
0 
0.06118063102026493 
-0.0617470438203456 
0.2568411883552791 
-0.7137943753843664 
-0.3618054194382965 
0 
0.1496157142372891 
0.03303026016861431 
0.4097330241358103 
0 
-0.1936302478261497 
0 
-0.272245007691868 
0.09178972704067888 
-0.7466232473259389 
0.127090742640998 
0 
-0.1450272621003941 
-0.3917317997512371 
0 
-0.7874512685567437 
0 
0.04571355001731439 
0.01166474266410632 
0 
0 
-0.7987301995676329 
-0.8786395389639776 
-0.3485297942878227 
0.5883275709637018 
0.09810829708008115 
0 
0 
0.7861850539003835 
0 
-0.06061231530074593 
0.1056940693188916 
-0.3006246023615008 
0.02391863202749443 
0.4928598182156867 
0.2435889732525298 
-0.1195414621186539 
0.05413113866275258 
0.09063706893594027 
0 
-0.01616414168063291 
-0.4165157596166616 
0.01679372631072914 
0 
-0.2124178467595495 
-0.2406239477404253 
0.8041975028721468 
-0.3456568148655046 
0.02918776582348791 
-0.06846203439765076 
0 
-0.1252352327496909 
0.2284116365740755 
0.7173759993173687 
0.1749256405999837 
0.1150732752247058 
-0.1791942615750703 
0.008927048713369801 
-0.2889139333407995 
-0.4873209083059326 
0.1583889242925771 
0 
0 
-0.3511242849495485 
0 
0 
0 
-0.1704494167009102 
-0.8033336349128812 
-0.4635366996350349 
0.07698683655343976 
0 
-0.2699178153964034 
0.04124683441048177 
-0.1392492035957695 
-0.178367054385085 
0.350762081839081 
-0.2804588436063546 
0.1641419854882203 
0 
0 
0 
0 
-0.1498608800914482 
0 
0 
0.2508061592181206 
0.3034148653300682 
0.02852333582622759 
0.2811146417527932 
-0.02406316379904336 
0.08263247180667267 
-0.04631565772092409 
0.7300055650660089 
0 
0 
0.09267936977102034 
0 
1.633498150521077 
0.2765746745478062 
-0.4854236891536222 
-0.4145570308651668 
0.1799545018617469 
-0.4104950450489587 
0 
-0.09160205562160953 
0 
0.2134582875103739 
0.4281804810171566 
0 
0.1130495584160108 
0 
-0.09399364734718939 
0.1141020151470776 
0 
0 
0.06743157360231447 
-0.472678102522245 
-0.5991810117951376 
-0.6672150385633329 
0.3175853718427635 
-0.02717452230799051 
0 
0 
0.3112041614565252 
-0.09393017039482669 
-0.3506080591826706 
0 
0 
0 
0.5550768562341575 
-0.7657919263018098 
-0.1836563862183215 
0.8749612071032628 
0 
0.5898593244655901 
0.3082460956574176 
-0.8743035516313915 
-0.023896722395058 
0 
0 
0 
0.2316015758497609 
0 
0 
-0.08643221618190662 
-0.08785181392490034 
0.3525491879355102 
0 
-0.1436395064064765 
0 
-1.49268481783885 
-0.1170820381910632 
0.467769002273746 
0 
0.0453550459316633 
0 
-0.3384428554245308 
0 
-0.002223428374037426 
0 
-0.05075905485617819 
0.3050555126053837 
-0.5728716386753581 
0.05814170317767334 
0.2154168851188334 
-0.0619994079017047 
-0.3037238188054826 
0.4976115940004891 
-0.3312596912451069 
-0.1584249962490986 
0.03069202702572128 
0 
0 
0.8484832210084171 
0.05370611980724046 
0 
0.1265225876402474 
-0.08614227973194094 
0 
0 
0 
0.001338978832033683 
0.2376578408130306 
-0.5607168903219841 
-1.050085428535223 
-0.07623884032945397 
-0.1959817418173147 
0 
-0.6232124913926985 
0 
0 
0 
0 
-0.2860663851943038 
0 
0 
0 
0.1282480301210742 
0.001658999468750894 
0 
0.207252994551488 
0 
-0.3938164899548681 
0 
0.02551630487045005 
0.2018794234490842 
-0.5758899483689025 
0 
-0.3260960615507185 
0 
-0.2579820646999714 
0.3313219936360804 
0 
-0.007570554581615453 
0 
-0.4385451872735411 
0.2207971984136681 
0 
0 
-0.2420628167969081 
-0.6740010058214307 
-0.2524476773098034 
0 
0 
-0.1750637226243518 
0 
0 
0 
0 
0.3488575243867742 
0 
-0.1865121980923942 
0.6526899897793098 
0 
0.288831621564363 
0 
0 
0.1830067996211412 
0.04728938643228016 
0.1467334904564337 
0 
0.0136539146121036 
-0.1610742677602581 
0 
-0.2701302506537974 
-0.7774881339940413 
-0.5626079078813575 
0.2040222556053831 
-0.3830223795984398 
-0.08454959395904141 
-0.04556745593636974 
0.405817127724239 
0 
-0.3100023872385428 
-1.176254985642323 
-0.03268978828007263 
0 
-0.01041493831357574 
-0.2557044363539097 
0 
0.3592614165963577 
-0.5606168304014915 
-0.3418292841279873 
-0.02255072675307248 
0 
-0.9668538775521733 
0.7774813633708344 
0 
0.4213180639083368 
0.6077239660860598 
0.1024719638600795 
-6.006205810351032e-05 
0 
-0.1210725779550807 
0.08401382016103384 
-0.003339928534583043 
-0.1012097028811108 
0 
0 
0 
-0.03499069838340327 
0.04590149763554233 
-0.0236407046611286 
0 
0 
-0.1222176972985117 
0.0742194115836462 
-0.1481078653082009 
0.03412990577433325 
-0.04924586228757024 
0.0637747925575515 
0 
0 
0 
0 
-0.2598119844351167 
0 
0.159594774116754 
0 
0 
0.5098604470351048 
-0.4563304693691542 
0 
0 
-0.8472559996754074 
0 
0 
-0.2059663281235035 
-0.1536661445070475 
0.02803621084311189 
0 
-0.04302771244699026 
0 
-0.2863161906350588 
-1.588588437419796 
0 
-0.2899654659892809 
0.08255176585310013 
0 
0.2941698558638903 
-0.150684576508573 
0.8934526676145328 
-0.4301688243024295 
-0.4546259827413179 
-0.4273501722981565 
0.3141551730876276 
0.00999016330918644 
-0.7046815503734177 
-0.01772076085798155 
-0.5143888224990824 
-0.1167585667624229 
0 
-0.3588747256000069 
0.6282902725584926 
0 
0 
0 
-0.05056239609948078 
-0.1662513785960548 
0 
-0.415128019636558 
-0.03997283281951639 
0.3120848256975168 
0.2207506511698749 
-0.0667020691538205 
0.3427005520275692 
0 
-0.1880513538871263 
-0.03853896643732473 
0.3917843379612246 
0.06458113277654018 
-0.6375561412507321 
-0.2561688247733295 
0 
0.08971913713690037 
0 
0 
0.3021881571380268 
0 
-0.7791012214963571 
-0.4861838127213871 
-0.04027154207131781 
-1.263761368915323 
0.001849015334025827 
-0.4458801575194828 
-0.4716931719237875 
0 
0.09916740400841378 
-0.01560330802356102 
0.3958235661346711 
0 
0.2624977844446912 
-0.2505320304911259 
0 
0 
0 
0.02790012826045042 
0 
0.1775275297053644 
0 
0.3620344366173683 
0.2565005647351636 
0 
0.6464876174258631 
0 
-0.5863045536767149 
0 
0.5975212061987945 
0 
0 
0.08917216181211891 
-0.4183716937786347 
-0.0371765443211006 
0.2925048701328935 
0 
0 
0 
0.238235559721725 
0 
-0.62435821794771 
-0.5493619773386499 
0 
-0.1441218122048511 
0 
0.2921485837007439 
-0.7926377485806072 
0.2295460725487406 
0 
0 
0 
0.07557892064888447 
0.4398936587201277 
-0.003897325515516798 
0 
0.04161995936890388 
-0.2257144086161626 
0 
0 
0 
0 
-0.4584017710682512 
0.001485167928468628 
-0.7255549616217861 
0.08350063269719304 
0.1835205942697358 
-0.2727406206196855 
0.008009798262965696 
0 
-0.2731671192454273 
-0.2233767043700536 
0 
-0.7141877831115104 
0 
0.02132091571651742 
0 
0 
0 
0 
0.327128542667922 
0.5167818970190962 
0 
-0.4568951916892496 
-0.377177733631416 
-0.7689919988931655 
-0.6122549559154782 
-0.1068203553066462 
-0.05308401511719876 
-0.4443562104386639 
-0.2434738145563846 
0.2527828600500605 
-0.073625048840507 
-0.1877980444936461 
-0.04023526457442658 
0.3306180556292122 
-0.3366213554154758 
0 
0.001478638079833117 
0.02901324259779519 
0.2260331731357654 
-0.395925031305127 
-0.5385009262494717 
0.2609149458279666 
0.1018055079980752 
